<?xml version="1.0"?>
<opencv_storage>
<stage19>
  <maxWeakCount>45</maxWeakCount>
  <stageThreshold>-6.7318797111511230e-01</stageThreshold>
  <weakClassifiers>
    <_>
      <internalNodes>
        0 -1 20014 -1.5592354536056519e-01</internalNodes>
      <leafValues>
        6.5432101488113403e-01 -6.6332913935184479e-02</leafValues></_>
    <_>
      <internalNodes>
        0 -1 8299 -1.3122467324137688e-02</internalNodes>
      <leafValues>
        -5.5808037519454956e-01 7.0501059293746948e-02</leafValues></_>
    <_>
      <internalNodes>
        0 -1 20833 7.8721884638071060e-03</internalNodes>
      <leafValues>
        1.5483406186103821e-01 -3.7986791133880615e-01</leafValues></_>
    <_>
      <internalNodes>
        0 -1 19593 -1.3036908581852913e-02</internalNodes>
      <leafValues>
        5.2087336778640747e-01 -6.7746214568614960e-02</leafValues></_>
    <_>
      <internalNodes>
        0 -1 68332 1.7399115487933159e-02</internalNodes>
      <leafValues>
        -1.5859979391098022e-01 3.3953285217285156e-01</leafValues></_>
    <_>
      <internalNodes>
        0 -1 116998 -5.2255541959311813e-05</internalNodes>
      <leafValues>
        2.5952580571174622e-01 -1.2506404519081116e-01</leafValues></_>
    <_>
      <internalNodes>
        0 -1 113432 1.9795487169176340e-03</internalNodes>
      <leafValues>
        -2.6900407671928406e-01 1.4119331538677216e-01</leafValues></_>
    <_>
      <internalNodes>
        0 -1 44459 5.7900296524167061e-03</internalNodes>
      <leafValues>
        -1.3467089831829071e-01 3.8945013284683228e-01</leafValues></_>
    <_>
      <internalNodes>
        0 -1 144202 3.6970863584429026e-04</internalNodes>
      <leafValues>
        -1.7984515428543091e-01 2.2830824553966522e-01</leafValues></_>
    <_>
      <internalNodes>
        0 -1 94802 1.0631270706653595e-02</internalNodes>
      <leafValues>
        6.0996942222118378e-02 -5.3703945875167847e-01</leafValues></_>
    <_>
      <internalNodes>
        0 -1 22661 9.9070463329553604e-03</internalNodes>
      <leafValues>
        4.2532265186309814e-02 -7.4387872219085693e-01</leafValues></_>
    <_>
      <internalNodes>
        0 -1 128707 -6.3160747289657593e-02</internalNodes>
      <leafValues>
        7.1047830581665039e-01 -5.4230201989412308e-02</leafValues></_>
    <_>
      <internalNodes>
        0 -1 137850 3.7753414362668991e-02</internalNodes>
      <leafValues>
        1.9219113886356354e-01 -2.5805038213729858e-01</leafValues></_>
    <_>
      <internalNodes>
        0 -1 153917 8.4357887506484985e-02</internalNodes>
      <leafValues>
        -1.0741307586431503e-01 3.8049873709678650e-01</leafValues></_>
    <_>
      <internalNodes>
        0 -1 162284 3.3028484322130680e-03</internalNodes>
      <leafValues>
        1.1892480403184891e-01 -3.5208716988563538e-01</leafValues></_>
    <_>
      <internalNodes>
        0 -1 109391 4.7932462766766548e-03</internalNodes>
      <leafValues>
        -1.7719256877899170e-01 2.2898747026920319e-01</leafValues></_>
    <_>
      <internalNodes>
        0 -1 92008 7.3228869587182999e-03</internalNodes>
      <leafValues>
        -1.2219344824552536e-01 3.0498537421226501e-01</leafValues></_>
    <_>
      <internalNodes>
        0 -1 28812 4.1806297376751900e-03</internalNodes>
      <leafValues>
        -1.4008513092994690e-01 2.6240161061286926e-01</leafValues></_>
    <_>
      <internalNodes>
        0 -1 159159 1.0348417563363910e-03</internalNodes>
      <leafValues>
        -1.9236248731613159e-01 2.0862771570682526e-01</leafValues></_>
    <_>
      <internalNodes>
        0 -1 147086 1.0811922838911414e-03</internalNodes>
      <leafValues>
        -1.4100554585456848e-01 2.7920973300933838e-01</leafValues></_>
    <_>
      <internalNodes>
        0 -1 116824 -1.5579466708004475e-02</internalNodes>
      <leafValues>
        -2.6801317930221558e-01 1.8072937428951263e-01</leafValues></_>
    <_>
      <internalNodes>
        0 -1 74272 2.5290229823440313e-03</internalNodes>
      <leafValues>
        -1.6471773386001587e-01 3.1584197282791138e-01</leafValues></_>
    <_>
      <internalNodes>
        0 -1 106759 5.1546539179980755e-04</internalNodes>
      <leafValues>
        -1.8262562155723572e-01 2.3667964339256287e-01</leafValues></_>
    <_>
      <internalNodes>
        0 -1 83701 -6.5163690596818924e-03</internalNodes>
      <leafValues>
        1.8075634539127350e-01 -2.2506691515445709e-01</leafValues></_>
    <_>
      <internalNodes>
        0 -1 57463 3.3730873838067055e-03</internalNodes>
      <leafValues>
        2.0096717774868011e-01 -2.4153642356395721e-01</leafValues></_>
    <_>
      <internalNodes>
        0 -1 105734 1.1387266218662262e-02</internalNodes>
      <leafValues>
        -1.1918209493160248e-01 3.6926636099815369e-01</leafValues></_>
    <_>
      <internalNodes>
        0 -1 111221 3.2211989164352417e-02</internalNodes>
      <leafValues>
        1.7905236780643463e-01 -2.5098773837089539e-01</leafValues></_>
    <_>
      <internalNodes>
        0 -1 9548 3.2306588254868984e-03</internalNodes>
      <leafValues>
        1.3089297711849213e-01 -3.5579729080200195e-01</leafValues></_>
    <_>
      <internalNodes>
        0 -1 12714 -2.6920828968286514e-02</internalNodes>
      <leafValues>
        -2.8674551844596863e-01 1.7819629609584808e-01</leafValues></_>
    <_>
      <internalNodes>
        0 -1 98639 -1.3000564649701118e-05</internalNodes>
      <leafValues>
        2.4154035747051239e-01 -1.8816708028316498e-01</leafValues></_>
    <_>
      <internalNodes>
        0 -1 160677 -8.0730783520266414e-04</internalNodes>
      <leafValues>
        -3.7767913937568665e-01 1.1872775107622147e-01</leafValues></_>
    <_>
      <internalNodes>
        0 -1 142971 -4.2303573340177536e-02</internalNodes>
      <leafValues>
        3.2226032018661499e-01 -1.2290287017822266e-01</leafValues></_>
    <_>
      <internalNodes>
        0 -1 4130 2.6786138187162578e-04</internalNodes>
      <leafValues>
        -1.7210945487022400e-01 2.2459363937377930e-01</leafValues></_>
    <_>
      <internalNodes>
        0 -1 91386 1.1002915911376476e-02</internalNodes>
      <leafValues>
        -1.1125310510396957e-01 3.3917179703712463e-01</leafValues></_>
    <_>
      <internalNodes>
        0 -1 41084 -7.5481795647647232e-05</internalNodes>
      <leafValues>
        1.8817701935768127e-01 -2.1381011605262756e-01</leafValues></_>
    <_>
      <internalNodes>
        0 -1 98410 1.2602068018168211e-03</internalNodes>
      <leafValues>
        -9.4345174729824066e-02 5.2686393260955811e-01</leafValues></_>
    <_>
      <internalNodes>
        0 -1 45539 2.5095084309577942e-01</internalNodes>
      <leafValues>
        6.8542882800102234e-02 -6.9616442918777466e-01</leafValues></_>
    <_>
      <internalNodes>
        0 -1 11035 6.7478293203748763e-05</internalNodes>
      <leafValues>
        -1.6517072916030884e-01 2.3908229172229767e-01</leafValues></_>
    <_>
      <internalNodes>
        0 -1 5114 6.5431452821940184e-04</internalNodes>
      <leafValues>
        1.1740411818027496e-01 -3.2388100028038025e-01</leafValues></_>
    <_>
      <internalNodes>
        0 -1 15149 8.9428210631012917e-03</internalNodes>
      <leafValues>
        -5.3130295127630234e-02 8.4303915500640869e-01</leafValues></_>
    <_>
      <internalNodes>
        0 -1 106804 3.6615267163142562e-04</internalNodes>
      <leafValues>
        9.9743999540805817e-02 -4.7499841451644897e-01</leafValues></_>
    <_>
      <internalNodes>
        0 -1 56286 5.8470635849516839e-05</internalNodes>
      <leafValues>
        -2.1371918916702271e-01 1.8652914464473724e-01</leafValues></_>
    <_>
      <internalNodes>
        0 -1 153927 1.9434564746916294e-03</internalNodes>
      <leafValues>
        -7.1008704602718353e-02 4.7370105981826782e-01</leafValues></_>
    <_>
      <internalNodes>
        0 -1 158461 -2.2586381237488240e-04</internalNodes>
      <leafValues>
        -2.1564203500747681e-01 1.7830170691013336e-01</leafValues></_>
    <_>
      <internalNodes>
        0 -1 99113 -1.4166198670864105e-02</internalNodes>
      <leafValues>
        5.1222413778305054e-01 -8.4579862654209137e-02</leafValues></_></weakClassifiers></stage19>
</opencv_storage>
