<?xml version="1.0"?>
<opencv_storage>
<stage0>
  <maxWeakCount>9</maxWeakCount>
  <stageThreshold>-8.9800006151199341e-01</stageThreshold>
  <weakClassifiers>
    <_>
      <internalNodes>
        0 -1 106836 -2.1133553236722946e-03</internalNodes>
      <leafValues>
        6.1336517333984375e-01 -5.5748373270034790e-01</leafValues></_>
    <_>
      <internalNodes>
        0 -1 111022 -2.8732288046739995e-04</internalNodes>
      <leafValues>
        7.0893293619155884e-01 -3.5077163577079773e-01</leafValues></_>
    <_>
      <internalNodes>
        0 -1 160455 -5.2965566283091903e-05</internalNodes>
      <leafValues>
        7.8131729364395142e-01 -2.7972763776779175e-01</leafValues></_>
    <_>
      <internalNodes>
        0 -1 113471 4.2195217683911324e-03</internalNodes>
      <leafValues>
        -2.5325232744216919e-01 7.5845628976821899e-01</leafValues></_>
    <_>
      <internalNodes>
        0 -1 162090 -7.9043129517231137e-05</internalNodes>
      <leafValues>
        5.9481501579284668e-01 -3.8128486275672913e-01</leafValues></_>
    <_>
      <internalNodes>
        0 -1 85781 -3.3902545692399144e-04</internalNodes>
      <leafValues>
        7.2876393795013428e-01 -2.5470530986785889e-01</leafValues></_>
    <_>
      <internalNodes>
        0 -1 136143 -1.0745140025392175e-04</internalNodes>
      <leafValues>
        7.3906958103179932e-01 -2.6993539929389954e-01</leafValues></_>
    <_>
      <internalNodes>
        0 -1 131803 -1.0869129619095474e-04</internalNodes>
      <leafValues>
        6.9322991371154785e-01 -2.7199119329452515e-01</leafValues></_>
    <_>
      <internalNodes>
        0 -1 116997 1.0691939678508788e-04</internalNodes>
      <leafValues>
        -2.3841708898544312e-01 8.0024623870849609e-01</leafValues></_></weakClassifiers></stage0>
</opencv_storage>
