<?xml version="1.0"?>
<opencv_storage>
<stage7>
  <maxWeakCount>31</maxWeakCount>
  <stageThreshold>-8.8723415136337280e-01</stageThreshold>
  <weakClassifiers>
    <_>
      <internalNodes>
        0 -1 102828 -1.4120370149612427e-02</internalNodes>
      <leafValues>
        5.3303962945938110e-01 -1.8529862165451050e-01</leafValues></_>
    <_>
      <internalNodes>
        0 -1 154533 -1.2284407857805490e-03</internalNodes>
      <leafValues>
        6.0651767253875732e-01 -1.2086067348718643e-01</leafValues></_>
    <_>
      <internalNodes>
        0 -1 113428 -1.2281754054129124e-02</internalNodes>
      <leafValues>
        4.6309745311737061e-01 -1.5519407391548157e-01</leafValues></_>
    <_>
      <internalNodes>
        0 -1 154910 1.9308123737573624e-03</internalNodes>
      <leafValues>
        2.0895348489284515e-01 -5.2895158529281616e-01</leafValues></_>
    <_>
      <internalNodes>
        0 -1 149301 2.6024613529443741e-02</internalNodes>
      <leafValues>
        -1.1749285459518433e-01 7.1913421154022217e-01</leafValues></_>
    <_>
      <internalNodes>
        0 -1 32706 -1.5147527679800987e-02</internalNodes>
      <leafValues>
        6.4164602756500244e-01 -9.2316657304763794e-02</leafValues></_>
    <_>
      <internalNodes>
        0 -1 143066 -3.3417399972677231e-03</internalNodes>
      <leafValues>
        5.2423352003097534e-01 -1.1613689363002777e-01</leafValues></_>
    <_>
      <internalNodes>
        0 -1 6462 1.7536357045173645e-01</internalNodes>
      <leafValues>
        7.8068926930427551e-02 -9.1469705104827881e-01</leafValues></_>
    <_>
      <internalNodes>
        0 -1 148852 -5.8849214110523462e-04</internalNodes>
      <leafValues>
        -4.0911805629730225e-01 1.8727760016918182e-01</leafValues></_>
    <_>
      <internalNodes>
        0 -1 79449 -3.0584991909563541e-03</internalNodes>
      <leafValues>
        5.9617435932159424e-01 -1.1294239014387131e-01</leafValues></_>
    <_>
      <internalNodes>
        0 -1 10194 7.9306229948997498e-02</internalNodes>
      <leafValues>
        -8.6554303765296936e-02 7.9407072067260742e-01</leafValues></_>
    <_>
      <internalNodes>
        0 -1 141769 -2.2195210680365562e-02</internalNodes>
      <leafValues>
        6.0618889331817627e-01 -1.2249073386192322e-01</leafValues></_>
    <_>
      <internalNodes>
        0 -1 131012 6.4708078280091286e-03</internalNodes>
      <leafValues>
        -1.8570733070373535e-01 3.8143584132194519e-01</leafValues></_>
    <_>
      <internalNodes>
        0 -1 76272 7.6544274634215981e-05</internalNodes>
      <leafValues>
        -1.7159296572208405e-01 3.6248552799224854e-01</leafValues></_>
    <_>
      <internalNodes>
        0 -1 28941 1.5144026838243008e-02</internalNodes>
      <leafValues>
        -1.0470397025346756e-01 6.7719829082489014e-01</leafValues></_>
    <_>
      <internalNodes>
        0 -1 144308 1.5459868591278791e-03</internalNodes>
      <leafValues>
        1.6107586026191711e-01 -4.7615993022918701e-01</leafValues></_>
    <_>
      <internalNodes>
        0 -1 3214 -1.0511979926377535e-03</internalNodes>
      <leafValues>
        -4.7473829984664917e-01 1.3625016808509827e-01</leafValues></_>
    <_>
      <internalNodes>
        0 -1 150284 8.0422346945852041e-04</internalNodes>
      <leafValues>
        -9.9961563944816589e-02 7.2679102420806885e-01</leafValues></_>
    <_>
      <internalNodes>
        0 -1 125062 -2.5967549299821258e-04</internalNodes>
      <leafValues>
        3.0870816111564636e-01 -2.2796581685543060e-01</leafValues></_>
    <_>
      <internalNodes>
        0 -1 162175 4.1999297536676750e-05</internalNodes>
      <leafValues>
        -2.5188994407653809e-01 2.8370085358619690e-01</leafValues></_>
    <_>
      <internalNodes>
        0 -1 10218 -5.0877191126346588e-02</internalNodes>
      <leafValues>
        7.5206190347671509e-01 -8.2165136933326721e-02</leafValues></_>
    <_>
      <internalNodes>
        0 -1 50660 -3.7742368876934052e-02</internalNodes>
      <leafValues>
        -4.0004268288612366e-01 1.8856984376907349e-01</leafValues></_>
    <_>
      <internalNodes>
        0 -1 39093 -1.7150092389783822e-05</internalNodes>
      <leafValues>
        2.9905647039413452e-01 -2.5070720911026001e-01</leafValues></_>
    <_>
      <internalNodes>
        0 -1 84139 -4.6005945478100330e-05</internalNodes>
      <leafValues>
        3.0724033713340759e-01 -2.2737015783786774e-01</leafValues></_>
    <_>
      <internalNodes>
        0 -1 105468 -3.0224043875932693e-03</internalNodes>
      <leafValues>
        6.9838452339172363e-01 -1.0686711221933365e-01</leafValues></_>
    <_>
      <internalNodes>
        0 -1 89984 1.2871953658759594e-03</internalNodes>
      <leafValues>
        1.3793995976448059e-01 -5.6021529436111450e-01</leafValues></_>
    <_>
      <internalNodes>
        0 -1 107236 -2.7448059991002083e-03</internalNodes>
      <leafValues>
        -2.4566730856895447e-01 2.9190197587013245e-01</leafValues></_>
    <_>
      <internalNodes>
        0 -1 97742 1.1837990954518318e-02</internalNodes>
      <leafValues>
        -1.0442575812339783e-01 6.5911668539047241e-01</leafValues></_>
    <_>
      <internalNodes>
        0 -1 13884 3.8111424073576927e-03</internalNodes>
      <leafValues>
        -2.9302105307579041e-01 2.3597714304924011e-01</leafValues></_>
    <_>
      <internalNodes>
        0 -1 146161 1.8404042930342257e-04</internalNodes>
      <leafValues>
        -1.9503016769886017e-01 3.5673198103904724e-01</leafValues></_>
    <_>
      <internalNodes>
        0 -1 31167 -1.3832361437380314e-03</internalNodes>
      <leafValues>
        4.7777658700942993e-01 -1.3040505349636078e-01</leafValues></_></weakClassifiers></stage7>
</opencv_storage>
