<?xml version="1.0"?>
<opencv_storage>
<stage9>
  <maxWeakCount>26</maxWeakCount>
  <stageThreshold>-6.4386087656021118e-01</stageThreshold>
  <weakClassifiers>
    <_>
      <internalNodes>
        0 -1 61230 -2.1128743886947632e-02</internalNodes>
      <leafValues>
        3.1591448187828064e-01 -2.8976035118103027e-01</leafValues></_>
    <_>
      <internalNodes>
        0 -1 143768 1.0005871299654245e-03</internalNodes>
      <leafValues>
        -1.4949220418930054e-01 5.4023796319961548e-01</leafValues></_>
    <_>
      <internalNodes>
        0 -1 59008 4.5683742500841618e-03</internalNodes>
      <leafValues>
        -2.4794512987136841e-01 3.6117678880691528e-01</leafValues></_>
    <_>
      <internalNodes>
        0 -1 4887 -3.6294108629226685e-01</internalNodes>
      <leafValues>
        6.5968823432922363e-01 -8.2962118089199066e-02</leafValues></_>
    <_>
      <internalNodes>
        0 -1 68876 -2.8948753606528044e-03</internalNodes>
      <leafValues>
        -3.5829132795333862e-01 1.9396491348743439e-01</leafValues></_>
    <_>
      <internalNodes>
        0 -1 147656 1.7878402024507523e-02</internalNodes>
      <leafValues>
        -9.5701597630977631e-02 6.3939267396926880e-01</leafValues></_>
    <_>
      <internalNodes>
        0 -1 61805 -4.9471534788608551e-02</internalNodes>
      <leafValues>
        8.2825887203216553e-01 -8.8122032582759857e-02</leafValues></_>
    <_>
      <internalNodes>
        0 -1 44400 -2.2843722254037857e-03</internalNodes>
      <leafValues>
        4.8204180598258972e-01 -1.4069625735282898e-01</leafValues></_>
    <_>
      <internalNodes>
        0 -1 72206 -2.3976873606443405e-02</internalNodes>
      <leafValues>
        7.7364379167556763e-01 -9.1542571783065796e-02</leafValues></_>
    <_>
      <internalNodes>
        0 -1 161778 5.8750680182129145e-05</internalNodes>
      <leafValues>
        -2.6542699337005615e-01 3.1462338566780090e-01</leafValues></_>
    <_>
      <internalNodes>
        0 -1 121977 3.9195455610752106e-03</internalNodes>
      <leafValues>
        -1.0187109559774399e-01 6.7136406898498535e-01</leafValues></_>
    <_>
      <internalNodes>
        0 -1 99320 -7.3607608675956726e-02</internalNodes>
      <leafValues>
        3.3995243906974792e-01 -2.3191557824611664e-01</leafValues></_>
    <_>
      <internalNodes>
        0 -1 161569 5.8353049098514020e-05</internalNodes>
      <leafValues>
        -2.5794455409049988e-01 2.8185769915580750e-01</leafValues></_>
    <_>
      <internalNodes>
        0 -1 112547 -2.1445937454700470e-02</internalNodes>
      <leafValues>
        -7.7910906076431274e-01 6.6269300878047943e-02</leafValues></_>
    <_>
      <internalNodes>
        0 -1 106683 1.8146085494663566e-05</internalNodes>
      <leafValues>
        -2.2605231404304504e-01 2.9134041070938110e-01</leafValues></_>
    <_>
      <internalNodes>
        0 -1 70862 5.3846370428800583e-03</internalNodes>
      <leafValues>
        1.2935115396976471e-01 -5.0226259231567383e-01</leafValues></_>
    <_>
      <internalNodes>
        0 -1 35836 2.9237748094601557e-05</internalNodes>
      <leafValues>
        -1.9224913418292999e-01 3.8939833641052246e-01</leafValues></_>
    <_>
      <internalNodes>
        0 -1 19624 -1.6489692497998476e-03</internalNodes>
      <leafValues>
        6.1563438177108765e-01 -1.1277689784765244e-01</leafValues></_>
    <_>
      <internalNodes>
        0 -1 60526 -9.7340659704059362e-04</internalNodes>
      <leafValues>
        -4.2024445533752441e-01 1.7854182422161102e-01</leafValues></_>
    <_>
      <internalNodes>
        0 -1 116163 4.5824348926544189e-03</internalNodes>
      <leafValues>
        1.8956036865711212e-01 -3.7145814299583435e-01</leafValues></_>
    <_>
      <internalNodes>
        0 -1 88237 -2.0554261282086372e-03</internalNodes>
      <leafValues>
        5.9438008069992065e-01 -1.0654494911432266e-01</leafValues></_>
    <_>
      <internalNodes>
        0 -1 75743 6.9001561496406794e-04</internalNodes>
      <leafValues>
        -2.3366776108741760e-01 3.0352589488029480e-01</leafValues></_>
    <_>
      <internalNodes>
        0 -1 140896 -1.6792509704828262e-02</internalNodes>
      <leafValues>
        5.4448783397674561e-01 -1.4492993056774139e-01</leafValues></_>
    <_>
      <internalNodes>
        0 -1 84260 1.7126190941780806e-03</internalNodes>
      <leafValues>
        -7.9267710447311401e-02 7.7647030353546143e-01</leafValues></_>
    <_>
      <internalNodes>
        0 -1 10031 -4.2079636477865279e-04</internalNodes>
      <leafValues>
        -3.7348452210426331e-01 2.0532071590423584e-01</leafValues></_>
    <_>
      <internalNodes>
        0 -1 68940 1.4991339412517846e-05</internalNodes>
      <leafValues>
        -2.4531917273998260e-01 3.2376262545585632e-01</leafValues></_></weakClassifiers></stage9>
</opencv_storage>
