<?xml version="1.0"?>
<opencv_storage>
<stage10>
  <maxWeakCount>38</maxWeakCount>
  <stageThreshold>-7.3713403940200806e-01</stageThreshold>
  <weakClassifiers>
    <_>
      <internalNodes>
        0 -1 3135 2.4326483253389597e-04</internalNodes>
      <leafValues>
        1.4719271659851074e-01 -4.3891403079032898e-01</leafValues></_>
    <_>
      <internalNodes>
        0 -1 113510 2.3432852700352669e-02</internalNodes>
      <leafValues>
        -1.7883801460266113e-01 3.2716819643974304e-01</leafValues></_>
    <_>
      <internalNodes>
        0 -1 320 -2.2769195493310690e-03</internalNodes>
      <leafValues>
        -4.7088477015495300e-01 1.1379219591617584e-01</leafValues></_>
    <_>
      <internalNodes>
        0 -1 7346 3.2965678721666336e-02</internalNodes>
      <leafValues>
        7.6420575380325317e-02 -7.4329322576522827e-01</leafValues></_>
    <_>
      <internalNodes>
        0 -1 127532 -1.5333953313529491e-02</internalNodes>
      <leafValues>
        9.6430343389511108e-01 -4.9788732081651688e-02</leafValues></_>
    <_>
      <internalNodes>
        0 -1 8867 -1.5248458366841078e-03</internalNodes>
      <leafValues>
        -3.3775916695594788e-01 1.4870028197765350e-01</leafValues></_>
    <_>
      <internalNodes>
        0 -1 67690 -2.4925149045884609e-04</internalNodes>
      <leafValues>
        3.2164779305458069e-01 -1.3260307908058167e-01</leafValues></_>
    <_>
      <internalNodes>
        0 -1 136235 3.6312095820903778e-02</internalNodes>
      <leafValues>
        1.7205463722348213e-02 -9.6876776218414307e-01</leafValues></_>
    <_>
      <internalNodes>
        0 -1 142157 -2.4755514459684491e-04</internalNodes>
      <leafValues>
        3.4670451283454895e-01 -1.4138521254062653e-01</leafValues></_>
    <_>
      <internalNodes>
        0 -1 37861 -2.9554949142038822e-03</internalNodes>
      <leafValues>
        -4.8565426468849182e-01 1.2743872404098511e-01</leafValues></_>
    <_>
      <internalNodes>
        0 -1 161894 1.0432188864797354e-03</internalNodes>
      <leafValues>
        8.2181431353092194e-02 -4.3428379297256470e-01</leafValues></_>
    <_>
      <internalNodes>
        0 -1 95083 1.3288901746273041e-01</internalNodes>
      <leafValues>
        -1.2693518400192261e-01 3.6769622564315796e-01</leafValues></_>
    <_>
      <internalNodes>
        0 -1 161431 -2.2064682096242905e-02</internalNodes>
      <leafValues>
        5.2410238981246948e-01 -9.5235861837863922e-02</leafValues></_>
    <_>
      <internalNodes>
        0 -1 59748 1.1579000856727362e-03</internalNodes>
      <leafValues>
        1.3165795803070068e-01 -3.8419726490974426e-01</leafValues></_>
    <_>
      <internalNodes>
        0 -1 153681 1.0431983508169651e-02</internalNodes>
      <leafValues>
        -1.3456805050373077e-01 3.9565214514732361e-01</leafValues></_>
    <_>
      <internalNodes>
        0 -1 96539 4.1740149259567261e-02</internalNodes>
      <leafValues>
        5.9012562036514282e-02 -8.2142066955566406e-01</leafValues></_>
    <_>
      <internalNodes>
        0 -1 111889 -1.7585046589374542e-02</internalNodes>
      <leafValues>
        -4.4613805413246155e-01 1.0655386000871658e-01</leafValues></_>
    <_>
      <internalNodes>
        0 -1 60421 -4.8874405911192298e-04</internalNodes>
      <leafValues>
        -5.1497751474380493e-01 1.0214553028345108e-01</leafValues></_>
    <_>
      <internalNodes>
        0 -1 119637 4.7007721150293946e-04</internalNodes>
      <leafValues>
        -1.4379701018333435e-01 3.1301432847976685e-01</leafValues></_>
    <_>
      <internalNodes>
        0 -1 89824 -5.0053175073117018e-04</internalNodes>
      <leafValues>
        -5.9523767232894897e-01 6.3385307788848877e-02</leafValues></_>
    <_>
      <internalNodes>
        0 -1 313 2.1439212560653687e-01</internalNodes>
      <leafValues>
        -6.1788633465766907e-02 9.0457648038864136e-01</leafValues></_>
    <_>
      <internalNodes>
        0 -1 120160 3.5386468516662717e-04</internalNodes>
      <leafValues>
        -1.6739949584007263e-01 2.7711731195449829e-01</leafValues></_>
    <_>
      <internalNodes>
        0 -1 155329 -1.6131378710269928e-02</internalNodes>
      <leafValues>
        5.1023548841476440e-01 -8.9223906397819519e-02</leafValues></_>
    <_>
      <internalNodes>
        0 -1 141680 5.7452394685242325e-05</internalNodes>
      <leafValues>
        -1.8511584401130676e-01 2.6666292548179626e-01</leafValues></_>
    <_>
      <internalNodes>
        0 -1 145897 7.3839433025568724e-04</internalNodes>
      <leafValues>
        -1.2785446643829346e-01 4.3287768959999084e-01</leafValues></_>
    <_>
      <internalNodes>
        0 -1 5871 8.3614862523972988e-04</internalNodes>
      <leafValues>
        1.6302658617496490e-01 -3.6609542369842529e-01</leafValues></_>
    <_>
      <internalNodes>
        0 -1 162139 -8.1366987433284521e-04</internalNodes>
      <leafValues>
        -6.9430172443389893e-01 5.5820666253566742e-02</leafValues></_>
    <_>
      <internalNodes>
        0 -1 138892 5.2935432177037001e-04</internalNodes>
      <leafValues>
        -1.4955078065395355e-01 3.5481998324394226e-01</leafValues></_>
    <_>
      <internalNodes>
        0 -1 160857 8.4191616624593735e-03</internalNodes>
      <leafValues>
        8.2084201276302338e-02 -7.5309425592422485e-01</leafValues></_>
    <_>
      <internalNodes>
        0 -1 161651 1.4466505963355303e-03</internalNodes>
      <leafValues>
        1.2706243991851807e-01 -3.3380556106567383e-01</leafValues></_>
    <_>
      <internalNodes>
        0 -1 127762 1.2069108197465539e-03</internalNodes>
      <leafValues>
        -1.2151574343442917e-01 3.8424432277679443e-01</leafValues></_>
    <_>
      <internalNodes>
        0 -1 112576 1.3162702089175582e-04</internalNodes>
      <leafValues>
        -2.6064628362655640e-01 2.1071144938468933e-01</leafValues></_>
    <_>
      <internalNodes>
        0 -1 115895 1.8640588223934174e-01</internalNodes>
      <leafValues>
        5.7555891573429108e-02 -7.3942536115646362e-01</leafValues></_>
    <_>
      <internalNodes>
        0 -1 126190 -3.5398639738559723e-03</internalNodes>
      <leafValues>
        3.5736918449401855e-01 -1.5529695153236389e-01</leafValues></_>
    <_>
      <internalNodes>
        0 -1 120764 -1.7980101983994246e-03</internalNodes>
      <leafValues>
        -4.5315855741500854e-01 1.3139982521533966e-01</leafValues></_>
    <_>
      <internalNodes>
        0 -1 126724 -3.7207212299108505e-02</internalNodes>
      <leafValues>
        -6.2417846918106079e-01 6.9652669131755829e-02</leafValues></_>
    <_>
      <internalNodes>
        0 -1 122226 7.9049766063690186e-02</internalNodes>
      <leafValues>
        -1.4576646685600281e-01 4.5646256208419800e-01</leafValues></_>
    <_>
      <internalNodes>
        0 -1 116337 -2.4237059056758881e-02</internalNodes>
      <leafValues>
        4.5855298638343811e-01 -1.0624554753303528e-01</leafValues></_></weakClassifiers></stage10>
</opencv_storage>
