<?xml version="1.0"?>
<opencv_storage>
<stage17>
  <maxWeakCount>49</maxWeakCount>
  <stageThreshold>-7.7245563268661499e-01</stageThreshold>
  <weakClassifiers>
    <_>
      <internalNodes>
        0 -1 49700 -2.0715005695819855e-02</internalNodes>
      <leafValues>
        -2.4119241535663605e-01 1.7416830360889435e-01</leafValues></_>
    <_>
      <internalNodes>
        0 -1 103034 1.3296650350093842e-01</internalNodes>
      <leafValues>
        -4.1583143174648285e-02 8.4135621786117554e-01</leafValues></_>
    <_>
      <internalNodes>
        0 -1 90326 1.3003744184970856e-01</internalNodes>
      <leafValues>
        8.2511037588119507e-02 -6.3871282339096069e-01</leafValues></_>
    <_>
      <internalNodes>
        0 -1 111642 4.7649271786212921e-02</internalNodes>
      <leafValues>
        -6.8721264600753784e-02 5.1804745197296143e-01</leafValues></_>
    <_>
      <internalNodes>
        0 -1 146437 3.6218930035829544e-03</internalNodes>
      <leafValues>
        7.7545799314975739e-02 -3.7361156940460205e-01</leafValues></_>
    <_>
      <internalNodes>
        0 -1 144948 2.8431858867406845e-02</internalNodes>
      <leafValues>
        -8.9321911334991455e-02 3.2091876864433289e-01</leafValues></_>
    <_>
      <internalNodes>
        0 -1 96878 4.4236447662115097e-02</internalNodes>
      <leafValues>
        -3.2352387905120850e-02 1.</leafValues></_>
    <_>
      <internalNodes>
        0 -1 98802 -3.1279563903808594e-02</internalNodes>
      <leafValues>
        -4.9560165405273438e-01 8.9198015630245209e-02</leafValues></_>
    <_>
      <internalNodes>
        0 -1 102218 5.0810143875423819e-05</internalNodes>
      <leafValues>
        -1.8592567741870880e-01 1.9268788397312164e-01</leafValues></_>
    <_>
      <internalNodes>
        0 -1 25891 5.1713744178414345e-03</internalNodes>
      <leafValues>
        4.6614199876785278e-02 -6.1132770776748657e-01</leafValues></_>
    <_>
      <internalNodes>
        0 -1 38541 -4.2243511416018009e-03</internalNodes>
      <leafValues>
        7.3241662979125977e-01 -5.9584360569715500e-02</leafValues></_>
    <_>
      <internalNodes>
        0 -1 81622 4.4144256971776485e-03</internalNodes>
      <leafValues>
        1.0759801417589188e-01 -3.5857197642326355e-01</leafValues></_>
    <_>
      <internalNodes>
        0 -1 84769 2.1668486297130585e-03</internalNodes>
      <leafValues>
        -6.5393857657909393e-02 5.3260040283203125e-01</leafValues></_>
    <_>
      <internalNodes>
        0 -1 120566 2.7839554240927100e-04</internalNodes>
      <leafValues>
        -1.7333030700683594e-01 2.2789049148559570e-01</leafValues></_>
    <_>
      <internalNodes>
        0 -1 99960 -1.7572555225342512e-03</internalNodes>
      <leafValues>
        3.0371916294097900e-01 -1.1937741190195084e-01</leafValues></_>
    <_>
      <internalNodes>
        0 -1 29980 3.1787663698196411e-02</internalNodes>
      <leafValues>
        5.8622553944587708e-02 -7.0663386583328247e-01</leafValues></_>
    <_>
      <internalNodes>
        0 -1 72689 5.2487161010503769e-03</internalNodes>
      <leafValues>
        -1.8232059478759766e-01 2.1683901548385620e-01</leafValues></_>
    <_>
      <internalNodes>
        0 -1 38144 -6.8233115598559380e-04</internalNodes>
      <leafValues>
        -3.7450289726257324e-01 9.7223490476608276e-02</leafValues></_>
    <_>
      <internalNodes>
        0 -1 73527 1.2470834190025926e-03</internalNodes>
      <leafValues>
        -1.1337527632713318e-01 3.3036020398139954e-01</leafValues></_>
    <_>
      <internalNodes>
        0 -1 92116 -4.9587234389036894e-04</internalNodes>
      <leafValues>
        1.5909014642238617e-01 -2.7822592854499817e-01</leafValues></_>
    <_>
      <internalNodes>
        0 -1 108190 1.8425960093736649e-02</internalNodes>
      <leafValues>
        1.4902952313423157e-01 -2.4737972021102905e-01</leafValues></_>
    <_>
      <internalNodes>
        0 -1 158461 -4.0236170752905309e-04</internalNodes>
      <leafValues>
        -2.5166147947311401e-01 1.6399542987346649e-01</leafValues></_>
    <_>
      <internalNodes>
        0 -1 146684 -1.5497629065066576e-03</internalNodes>
      <leafValues>
        2.9012352228164673e-01 -1.3009616732597351e-01</leafValues></_>
    <_>
      <internalNodes>
        0 -1 6801 1.0484803467988968e-02</internalNodes>
      <leafValues>
        -1.6214381158351898e-01 2.3857645690441132e-01</leafValues></_>
    <_>
      <internalNodes>
        0 -1 37899 -7.0392445195466280e-05</internalNodes>
      <leafValues>
        2.6702162623405457e-01 -1.6705995798110962e-01</leafValues></_>
    <_>
      <internalNodes>
        0 -1 130110 5.4280031472444534e-02</internalNodes>
      <leafValues>
        5.1831103861331940e-02 -8.7874895334243774e-01</leafValues></_>
    <_>
      <internalNodes>
        0 -1 14870 1.7246589995920658e-03</internalNodes>
      <leafValues>
        -1.2429722398519516e-01 3.5102209448814392e-01</leafValues></_>
    <_>
      <internalNodes>
        0 -1 5126 7.0284577086567879e-03</internalNodes>
      <leafValues>
        1.2363865226507187e-01 -3.1133854389190674e-01</leafValues></_>
    <_>
      <internalNodes>
        0 -1 105445 1.7088161781430244e-02</internalNodes>
      <leafValues>
        -7.2357892990112305e-02 5.5857193470001221e-01</leafValues></_>
    <_>
      <internalNodes>
        0 -1 151299 1.4947786927223206e-02</internalNodes>
      <leafValues>
        4.8360686749219894e-02 -7.6936322450637817e-01</leafValues></_>
    <_>
      <internalNodes>
        0 -1 159011 1.1438490764703602e-04</internalNodes>
      <leafValues>
        -2.0289234817028046e-01 2.0728635787963867e-01</leafValues></_>
    <_>
      <internalNodes>
        0 -1 19315 -1.1715612560510635e-01</internalNodes>
      <leafValues>
        -4.9223560094833374e-01 7.9505026340484619e-02</leafValues></_>
    <_>
      <internalNodes>
        0 -1 45265 1.7929691821336746e-02</internalNodes>
      <leafValues>
        5.3815554827451706e-02 -7.2533172369003296e-01</leafValues></_>
    <_>
      <internalNodes>
        0 -1 126625 4.3717771768569946e-04</internalNodes>
      <leafValues>
        -1.5339855849742889e-01 2.7254161238670349e-01</leafValues></_>
    <_>
      <internalNodes>
        0 -1 98707 1.1867792345583439e-02</internalNodes>
      <leafValues>
        5.2485365420579910e-02 -7.3406708240509033e-01</leafValues></_>
    <_>
      <internalNodes>
        0 -1 143897 7.4891740223392844e-04</internalNodes>
      <leafValues>
        -8.5192017257213593e-02 5.6141614913940430e-01</leafValues></_>
    <_>
      <internalNodes>
        0 -1 53697 1.6353938728570938e-02</internalNodes>
      <leafValues>
        -7.9030565917491913e-02 4.5155256986618042e-01</leafValues></_>
    <_>
      <internalNodes>
        0 -1 161448 -1.0435089934617281e-03</internalNodes>
      <leafValues>
        -4.8512309789657593e-01 8.1475652754306793e-02</leafValues></_>
    <_>
      <internalNodes>
        0 -1 149439 -6.6991327912546694e-05</internalNodes>
      <leafValues>
        1.9903254508972168e-01 -1.7741027474403381e-01</leafValues></_>
    <_>
      <internalNodes>
        0 -1 161748 -2.3573427461087704e-03</internalNodes>
      <leafValues>
        -4.7655493021011353e-01 8.4641776978969574e-02</leafValues></_>
    <_>
      <internalNodes>
        0 -1 96424 2.3644563043490052e-04</internalNodes>
      <leafValues>
        -1.3758690655231476e-01 2.9094633460044861e-01</leafValues></_>
    <_>
      <internalNodes>
        0 -1 33270 -1.5748178586363792e-02</internalNodes>
      <leafValues>
        -7.9268431663513184e-01 4.8212096095085144e-02</leafValues></_>
    <_>
      <internalNodes>
        0 -1 93712 1.2371068820357323e-02</internalNodes>
      <leafValues>
        3.7805311381816864e-02 -8.8766169548034668e-01</leafValues></_>
    <_>
      <internalNodes>
        0 -1 14809 6.4202532172203064e-02</internalNodes>
      <leafValues>
        -5.1633812487125397e-02 8.5658234357833862e-01</leafValues></_>
    <_>
      <internalNodes>
        0 -1 75219 -4.7048954293131828e-03</internalNodes>
      <leafValues>
        3.1741154193878174e-01 -1.0892070829868317e-01</leafValues></_>
    <_>
      <internalNodes>
        0 -1 10048 5.6892272550612688e-04</internalNodes>
      <leafValues>
        1.1078219115734100e-01 -3.5269373655319214e-01</leafValues></_>
    <_>
      <internalNodes>
        0 -1 136788 -2.0986003801226616e-04</internalNodes>
      <leafValues>
        2.6404988765716553e-01 -1.5352039039134979e-01</leafValues></_>
    <_>
      <internalNodes>
        0 -1 3875 2.6389276981353760e-01</internalNodes>
      <leafValues>
        -8.5973948240280151e-02 5.6903767585754395e-01</leafValues></_>
    <_>
      <internalNodes>
        0 -1 65156 -3.3648752141743898e-03</internalNodes>
      <leafValues>
        3.0094590783119202e-01 -1.3247655332088470e-01</leafValues></_></weakClassifiers></stage17>
</opencv_storage>
