<?xml version="1.0"?>
<opencv_storage>
<stage5>
  <maxWeakCount>30</maxWeakCount>
  <stageThreshold>-8.9925503730773926e-01</stageThreshold>
  <weakClassifiers>
    <_>
      <internalNodes>
        0 -1 1006 4.2276196181774139e-03</internalNodes>
      <leafValues>
        2.1201413869857788e-01 -3.8216561079025269e-01</leafValues></_>
    <_>
      <internalNodes>
        0 -1 146632 5.2283168770372868e-05</internalNodes>
      <leafValues>
        -2.1529781818389893e-01 2.8303453326225281e-01</leafValues></_>
    <_>
      <internalNodes>
        0 -1 118627 -5.2030669758096337e-04</internalNodes>
      <leafValues>
        4.1151431202888489e-01 -1.5972150862216949e-01</leafValues></_>
    <_>
      <internalNodes>
        0 -1 6666 -9.3950144946575165e-04</internalNodes>
      <leafValues>
        -5.6509184837341309e-01 1.0089602321386337e-01</leafValues></_>
    <_>
      <internalNodes>
        0 -1 11098 8.5118059068918228e-03</internalNodes>
      <leafValues>
        -5.9793163090944290e-02 9.4109576940536499e-01</leafValues></_>
    <_>
      <internalNodes>
        0 -1 61089 3.5146899521350861e-02</internalNodes>
      <leafValues>
        -1.2046664208173752e-01 5.0026082992553711e-01</leafValues></_>
    <_>
      <internalNodes>
        0 -1 44969 4.5093380322214216e-05</internalNodes>
      <leafValues>
        -1.6081494092941284e-01 3.4683984518051147e-01</leafValues></_>
    <_>
      <internalNodes>
        0 -1 82095 -1.9873045384883881e-02</internalNodes>
      <leafValues>
        6.1635780334472656e-01 -1.0630502551794052e-01</leafValues></_>
    <_>
      <internalNodes>
        0 -1 132116 6.1977026052772999e-04</internalNodes>
      <leafValues>
        -1.5628869831562042e-01 3.8737598061561584e-01</leafValues></_>
    <_>
      <internalNodes>
        0 -1 89986 -1.9976231269538403e-03</internalNodes>
      <leafValues>
        -4.5990714430809021e-01 1.7182117700576782e-01</leafValues></_>
    <_>
      <internalNodes>
        0 -1 112169 2.6168540352955461e-04</internalNodes>
      <leafValues>
        -2.0240047574043274e-01 4.1568368673324585e-01</leafValues></_>
    <_>
      <internalNodes>
        0 -1 58783 -3.2585866749286652e-02</internalNodes>
      <leafValues>
        6.1208486557006836e-01 -8.7195634841918945e-02</leafValues></_>
    <_>
      <internalNodes>
        0 -1 37961 7.8543304698541760e-04</internalNodes>
      <leafValues>
        1.7041434347629547e-01 -4.2975351214408875e-01</leafValues></_>
    <_>
      <internalNodes>
        0 -1 97271 3.8182574789971113e-03</internalNodes>
      <leafValues>
        -3.2138842344284058e-01 2.4125383794307709e-01</leafValues></_>
    <_>
      <internalNodes>
        0 -1 105740 -1.6087941825389862e-02</internalNodes>
      <leafValues>
        6.4479452371597290e-01 -1.0104784369468689e-01</leafValues></_>
    <_>
      <internalNodes>
        0 -1 134080 -7.7275022864341736e-02</internalNodes>
      <leafValues>
        5.8199125528335571e-01 -1.0254263132810593e-01</leafValues></_>
    <_>
      <internalNodes>
        0 -1 157737 -2.6981206610798836e-03</internalNodes>
      <leafValues>
        -8.3136266469955444e-01 8.3928078413009644e-02</leafValues></_>
    <_>
      <internalNodes>
        0 -1 104014 3.4983444493263960e-04</internalNodes>
      <leafValues>
        -1.7602758109569550e-01 3.9153075218200684e-01</leafValues></_>
    <_>
      <internalNodes>
        0 -1 68914 1.0737180709838867e-03</internalNodes>
      <leafValues>
        -1.6568554937839508e-01 4.0137898921966553e-01</leafValues></_>
    <_>
      <internalNodes>
        0 -1 159557 2.7501806471263990e-05</internalNodes>
      <leafValues>
        -2.2658225893974304e-01 2.7634188532829285e-01</leafValues></_>
    <_>
      <internalNodes>
        0 -1 7646 4.1188519448041916e-02</internalNodes>
      <leafValues>
        1.1210394650697708e-01 -6.8838304281234741e-01</leafValues></_>
    <_>
      <internalNodes>
        0 -1 148675 -6.1202491633594036e-04</internalNodes>
      <leafValues>
        -5.5987292528152466e-01 1.1252368241548538e-01</leafValues></_>
    <_>
      <internalNodes>
        0 -1 11045 -4.6693900367245078e-04</internalNodes>
      <leafValues>
        -3.7727004289627075e-01 1.6367505490779877e-01</leafValues></_>
    <_>
      <internalNodes>
        0 -1 44966 3.6519963032333180e-05</internalNodes>
      <leafValues>
        -1.8405608832836151e-01 3.3558583259582520e-01</leafValues></_>
    <_>
      <internalNodes>
        0 -1 68799 -2.0121973939239979e-03</internalNodes>
      <leafValues>
        -3.0409893393516541e-01 2.7852708101272583e-01</leafValues></_>
    <_>
      <internalNodes>
        0 -1 124502 9.7515108063817024e-04</internalNodes>
      <leafValues>
        -1.8567046523094177e-01 3.5498014092445374e-01</leafValues></_>
    <_>
      <internalNodes>
        0 -1 85135 -1.8527649808675051e-03</internalNodes>
      <leafValues>
        3.1900501251220703e-01 -2.1989475190639496e-01</leafValues></_>
    <_>
      <internalNodes>
        0 -1 110117 4.1381514165550470e-05</internalNodes>
      <leafValues>
        -1.7235553264617920e-01 3.9773485064506531e-01</leafValues></_>
    <_>
      <internalNodes>
        0 -1 114297 1.2507857754826546e-03</internalNodes>
      <leafValues>
        1.1304039508104324e-01 -6.4035606384277344e-01</leafValues></_>
    <_>
      <internalNodes>
        0 -1 2129 1.5089416410773993e-04</internalNodes>
      <leafValues>
        1.3143159449100494e-01 -4.4504958391189575e-01</leafValues></_></weakClassifiers></stage5>
</opencv_storage>
